<?xml version="1.0"?>
<opencv_storage>
<cascade>
  <stageType>BOOST</stageType>
  <featureType>HAAR</featureType>
  <height>20</height>
  <width>30</width>
  <stageParams>
    <boostType>GAB</boostType>
    <minHitRate>9.9500000476837158e-01</minHitRate>
    <maxFalseAlarm>5.0000000000000000e-01</maxFalseAlarm>
    <weightTrimRate>9.4999999999999996e-01</weightTrimRate>
    <maxDepth>1</maxDepth>
    <maxWeakCount>100</maxWeakCount></stageParams>
  <featureParams>
    <maxCatCount>0</maxCatCount>
    <featSize>1</featSize>
    <mode>BASIC</mode></featureParams>
  <stageNum>5</stageNum>
  <stages>
    <!-- stage 0 -->
    <_>
      <maxWeakCount>4</maxWeakCount>
      <stageThreshold>-7.0026326179504395e-01</stageThreshold>
      <weakClassifiers>
        <_>
          <internalNodes>
            0 -1 13 1.4200233854353428e-03</internalNodes>
          <leafValues>
            -9.0364962816238403e-01 7.2471129894256592e-01</leafValues></_>
        <_>
          <internalNodes>
            0 -1 19 9.1805457486771047e-05</internalNodes>
          <leafValues>
            3.6925563216209412e-01 -8.5326570272445679e-01</leafValues></_>
        <_>
          <internalNodes>
            0 -1 4 3.1384177505970001e-02</internalNodes>
          <leafValues>
            -4.7504267096519470e-01 7.1807730197906494e-01</leafValues></_>
        <_>
          <internalNodes>
            0 -1 22 -2.4324131663888693e-04</internalNodes>
          <leafValues>
            -8.5004937648773193e-01 3.0917343497276306e-01</leafValues></_></weakClassifiers></_>
    <!-- stage 1 -->
    <_>
      <maxWeakCount>6</maxWeakCount>
      <stageThreshold>-8.5666781663894653e-01</stageThreshold>
      <weakClassifiers>
        <_>
          <internalNodes>
            0 -1 9 1.3123503886163235e-03</internalNodes>
          <leafValues>
            -7.2477066516876221e-01 6.4845174551010132e-01</leafValues></_>
        <_>
          <internalNodes>
            0 -1 6 6.5685727167874575e-04</internalNodes>
          <leafValues>
            -4.8709487915039062e-01 5.3232765197753906e-01</leafValues></_>
        <_>
          <internalNodes>
            0 -1 24 -4.7188113967422396e-05</internalNodes>
          <leafValues>
            -6.8647730350494385e-01 3.8684073090553284e-01</leafValues></_>
        <_>
          <internalNodes>
            0 -1 12 2.2372570820152760e-03</internalNodes>
          <leafValues>
            3.0192837119102478e-01 -9.1189694404602051e-01</leafValues></_>
        <_>
          <internalNodes>
            0 -1 0 -2.6732275728136301e-03</internalNodes>
          <leafValues>
            6.1816400289535522e-01 -4.8085805773735046e-01</leafValues></_>
        <_>
          <internalNodes>
            0 -1 10 -5.3006149828433990e-03</internalNodes>
          <leafValues>
            -8.7657201290130615e-01 2.6208996772766113e-01</leafValues></_></weakClassifiers></_>
    <!-- stage 2 -->
    <_>
      <maxWeakCount>6</maxWeakCount>
      <stageThreshold>-1.0292716026306152e+00</stageThreshold>
      <weakClassifiers>
        <_>
          <internalNodes>
            0 -1 22 -7.9169974196702242e-04</internalNodes>
          <leafValues>
            -8.9686095714569092e-01 5.6156408786773682e-01</leafValues></_>
        <_>
          <internalNodes>
            0 -1 14 2.5882376357913017e-03</internalNodes>
          <leafValues>
            -8.7406140565872192e-01 3.3331149816513062e-01</leafValues></_>
        <_>
          <internalNodes>
            0 -1 19 6.0969035985181108e-05</internalNodes>
          <leafValues>
            2.2807283699512482e-01 -8.4991008043289185e-01</leafValues></_>
        <_>
          <internalNodes>
            0 -1 27 7.5366173405200243e-04</internalNodes>
          <leafValues>
            -3.9646512269973755e-01 5.3894180059432983e-01</leafValues></_>
        <_>
          <internalNodes>
            0 -1 23 3.9720747736282647e-04</internalNodes>
          <leafValues>
            2.5385674834251404e-01 -7.9943895339965820e-01</leafValues></_>
        <_>
          <internalNodes>
            0 -1 21 -4.3106876546517015e-05</internalNodes>
          <leafValues>
            -8.0223864316940308e-01 2.0745569467544556e-01</leafValues></_></weakClassifiers></_>
    <!-- stage 3 -->
    <_>
      <maxWeakCount>7</maxWeakCount>
      <stageThreshold>-8.3654993772506714e-01</stageThreshold>
      <weakClassifiers>
        <_>
          <internalNodes>
            0 -1 15 3.0391425825655460e-03</internalNodes>
          <leafValues>
            -7.7653628587722778e-01 5.9100735187530518e-01</leafValues></_>
        <_>
          <internalNodes>
            0 -1 26 -4.5889418106526136e-04</internalNodes>
          <leafValues>
            6.0413908958435059e-01 -3.4766465425491333e-01</leafValues></_>
        <_>
          <internalNodes>
            0 -1 3 -1.9741333089768887e-03</internalNodes>
          <leafValues>
            4.4085869193077087e-01 -4.7542741894721985e-01</leafValues></_>
        <_>
          <internalNodes>
            0 -1 1 -1.1645016493275762e-03</internalNodes>
          <leafValues>
            5.1193165779113770e-01 -4.2523714900016785e-01</leafValues></_>
        <_>
          <internalNodes>
            0 -1 20 -7.4488040991127491e-04</internalNodes>
          <leafValues>
            -9.1015899181365967e-01 1.7466042935848236e-01</leafValues></_>
        <_>
          <internalNodes>
            0 -1 18 8.8319566566497087e-04</internalNodes>
          <leafValues>
            2.2864888608455658e-01 -8.7285268306732178e-01</leafValues></_>
        <_>
          <internalNodes>
            0 -1 7 2.6008655549958348e-04</internalNodes>
          <leafValues>
            -5.8253741264343262e-01 2.6741811633110046e-01</leafValues></_></weakClassifiers></_>
    <!-- stage 4 -->
    <_>
      <maxWeakCount>8</maxWeakCount>
      <stageThreshold>-8.4259074926376343e-01</stageThreshold>
      <weakClassifiers>
        <_>
          <internalNodes>
            0 -1 17 9.7241392359137535e-04</internalNodes>
          <leafValues>
            5.1657575368881226e-01 -6.0171306133270264e-01</leafValues></_>
        <_>
          <internalNodes>
            0 -1 8 1.0778316063806415e-03</internalNodes>
          <leafValues>
            -4.3692252039909363e-01 4.8721072077751160e-01</leafValues></_>
        <_>
          <internalNodes>
            0 -1 24 -4.4404725485946983e-05</internalNodes>
          <leafValues>
            -6.3048028945922852e-01 4.1578257083892822e-01</leafValues></_>
        <_>
          <internalNodes>
            0 -1 25 -9.2598632909357548e-04</internalNodes>
          <leafValues>
            3.5911825299263000e-01 -4.6705836057662964e-01</leafValues></_>
        <_>
          <internalNodes>
            0 -1 5 -3.9794878102838993e-04</internalNodes>
          <leafValues>
            5.0087267160415649e-01 -3.1816363334655762e-01</leafValues></_>
        <_>
          <internalNodes>
            0 -1 16 -2.6508362498134375e-04</internalNodes>
          <leafValues>
            -9.7236675024032593e-01 1.3490569591522217e-01</leafValues></_>
        <_>
          <internalNodes>
            0 -1 11 3.0124083423288539e-05</internalNodes>
          <leafValues>
            2.9187729954719543e-01 -4.8434889316558838e-01</leafValues></_>
        <_>
          <internalNodes>
            0 -1 2 -4.6780257252976298e-04</internalNodes>
          <leafValues>
            3.5878747701644897e-01 -4.0812450647354126e-01</leafValues></_></weakClassifiers></_></stages>
  <features>
    <_>
      <rects>
        <_>
          6 0 14 2 -1.</_>
        <_>
          6 1 14 1 2.</_></rects>
      <tilted>0</tilted></_>
    <_>
      <rects>
        <_>
          7 0 4 4 -1.</_>
        <_>
          7 2 4 2 2.</_></rects>
      <tilted>0</tilted></_>
    <_>
      <rects>
        <_>
          8 0 8 2 -1.</_>
        <_>
          8 1 8 1 2.</_></rects>
      <tilted>0</tilted></_>
    <_>
      <rects>
        <_>
          10 9 6 3 -1.</_>
        <_>
          12 9 2 3 3.</_></rects>
      <tilted>0</tilted></_>
    <_>
      <rects>
        <_>
          12 8 15 5 -1.</_>
        <_>
          17 8 5 5 3.</_></rects>
      <tilted>0</tilted></_>
    <_>
      <rects>
        <_>
          13 7 1 4 -1.</_>
        <_>
          13 9 1 2 2.</_></rects>
      <tilted>0</tilted></_>
    <_>
      <rects>
        <_>
          13 10 4 1 -1.</_>
        <_>
          15 10 2 1 2.</_></rects>
      <tilted>0</tilted></_>
    <_>
      <rects>
        <_>
          14 6 6 2 -1.</_>
        <_>
          17 6 3 2 2.</_></rects>
      <tilted>0</tilted></_>
    <_>
      <rects>
        <_>
          14 8 3 4 -1.</_>
        <_>
          15 8 1 4 3.</_></rects>
      <tilted>0</tilted></_>
    <_>
      <rects>
        <_>
          15 4 5 9 -1.</_>
        <_>
          15 7 5 3 3.</_></rects>
      <tilted>0</tilted></_>
    <_>
      <rects>
        <_>
          15 7 6 5 -1.</_>
        <_>
          18 7 3 5 2.</_></rects>
      <tilted>0</tilted></_>
    <_>
      <rects>
        <_>
          15 9 2 1 -1.</_>
        <_>
          16 9 1 1 2.</_></rects>
      <tilted>0</tilted></_>
    <_>
      <rects>
        <_>
          15 9 5 4 -1.</_>
        <_>
          15 11 5 2 2.</_></rects>
      <tilted>0</tilted></_>
    <_>
      <rects>
        <_>
          16 3 2 8 -1.</_>
        <_>
          16 7 2 4 2.</_></rects>
      <tilted>0</tilted></_>
    <_>
      <rects>
        <_>
          16 3 3 12 -1.</_>
        <_>
          16 7 3 4 3.</_></rects>
      <tilted>0</tilted></_>
    <_>
      <rects>
        <_>
          16 3 5 6 -1.</_>
        <_>
          16 6 5 3 2.</_></rects>
      <tilted>0</tilted></_>
    <_>
      <rects>
        <_>
          16 5 3 6 -1.</_>
        <_>
          16 8 3 3 2.</_></rects>
      <tilted>0</tilted></_>
    <_>
      <rects>
        <_>
          16 8 2 4 -1.</_>
        <_>
          16 10 2 2 2.</_></rects>
      <tilted>0</tilted></_>
    <_>
      <rects>
        <_>
          16 8 4 4 -1.</_>
        <_>
          18 8 2 4 2.</_></rects>
      <tilted>0</tilted></_>
    <_>
      <rects>
        <_>
          16 9 2 2 -1.</_>
        <_>
          17 9 1 2 2.</_></rects>
      <tilted>0</tilted></_>
    <_>
      <rects>
        <_>
          16 9 4 1 -1.</_>
        <_>
          18 9 2 1 2.</_></rects>
      <tilted>0</tilted></_>
    <_>
      <rects>
        <_>
          17 6 1 6 -1.</_>
        <_>
          17 9 1 3 2.</_></rects>
      <tilted>0</tilted></_>
    <_>
      <rects>
        <_>
          17 7 2 6 -1.</_>
        <_>
          17 10 2 3 2.</_></rects>
      <tilted>0</tilted></_>
    <_>
      <rects>
        <_>
          17 8 3 2 -1.</_>
        <_>
          17 9 3 1 2.</_></rects>
      <tilted>0</tilted></_>
    <_>
      <rects>
        <_>
          17 9 2 4 -1.</_>
        <_>
          17 11 2 2 2.</_></rects>
      <tilted>0</tilted></_>
    <_>
      <rects>
        <_>
          22 9 2 4 -1.</_>
        <_>
          22 11 2 2 2.</_></rects>
      <tilted>0</tilted></_>
    <_>
      <rects>
        <_>
          23 10 3 1 -1.</_>
        <_>
          24 10 1 1 3.</_></rects>
      <tilted>0</tilted></_>
    <_>
      <rects>
        <_>
          23 10 2 4 -1.</_>
        <_>
          23 10 1 2 2.</_>
        <_>
          24 12 1 2 2.</_></rects>
      <tilted>0</tilted></_></features></cascade>
</opencv_storage>
